<?xml version="1.0" encoding="UTF-8"?>
<smile version="1.0" id="WSN_Attack_Detector" numsamples="1000" discsamples="10000">
  <nodes>
    <cpt id="TOPOLOGIA">
      <state id="N36"/>
      <state id="N48"/>
      <state id="N64"/>
      <state id="N100"/>
      <probabilities>0.250000 0.250000 0.250000 0.250000</probabilities>
    </cpt>

    <cpt id="TIPO_DE_ATAQUE">
      <state id="Backoff"/>
      <state id="Blackhole"/>
      <state id="Flooding"/>
      <state id="Normal"/>
      <state id="Wormhole"/>
      <parents>TOPOLOGIA</parents>
      <probabilities>0.200000 0.200000 0.200000 0.200000 0.200000 0.200000 0.200000 0.200000 0.200000 0.200000 0.200000 0.200000 0.200000 0.200000 0.200000 0.200000 0.200000 0.200000 0.200000 0.200000</probabilities>
    </cpt>

    <cpt id="PDR">
      <state id="Low"/>
      <state id="Medium"/>
      <state id="High"/>
      <parents>TOPOLOGIA TIPO_DE_ATAQUE</parents>
      <probabilities>0.076923 0.461538 0.461538 0.692308 0.230769 0.076923 0.384615 0.307692 0.307692 0.076923 0.076923 0.846154 0.615385 0.307692 0.076923 0.153846 0.230769 0.615385 0.384615 0.538462 0.076923 0.461538 0.461538 0.076923 0.076923 0.076923 0.846154 0.384615 0.538462 0.076923 0.230769 0.461538 0.307692 0.615385 0.307692 0.076923 0.461538 0.384615 0.153846 0.076923 0.076923 0.846154 0.538462 0.384615 0.076923 0.153846 0.230769 0.615385 0.461538 0.461538 0.076923 0.384615 0.538462 0.076923 0.076923 0.076923 0.846154 0.461538 0.384615 0.153846</probabilities>
    </cpt>

    <cpt id="DELAY">
      <state id="Low"/>
      <state id="Medium"/>
      <state id="High"/>
      <parents>TOPOLOGIA TIPO_DE_ATAQUE</parents>
      <probabilities>0.153846 0.384615 0.461538 0.461538 0.307692 0.230769 0.076923 0.230769 0.692308 0.538462 0.384615 0.076923 0.615385 0.307692 0.076923 0.307692 0.230769 0.461538 0.307692 0.461538 0.230769 0.153846 0.153846 0.692308 0.615385 0.307692 0.076923 0.384615 0.384615 0.230769 0.307692 0.153846 0.538462 0.307692 0.307692 0.384615 0.076923 0.307692 0.615385 0.692308 0.230769 0.076923 0.307692 0.538462 0.153846 0.230769 0.230769 0.538462 0.153846 0.538462 0.307692 0.076923 0.230769 0.692308 0.538462 0.384615 0.076923 0.384615 0.538462 0.076923</probabilities>
    </cpt>

    <cpt id="THROUGHPUT">
      <state id="Low"/>
      <state id="Medium"/>
      <state id="High"/>
      <parents>TOPOLOGIA TIPO_DE_ATAQUE</parents>
      <probabilities>0.538462 0.307692 0.153846 0.538462 0.307692 0.153846 0.692308 0.076923 0.230769 0.076923 0.230769 0.692308 0.307692 0.230769 0.461538 0.307692 0.384615 0.307692 0.538462 0.307692 0.153846 0.153846 0.461538 0.384615 0.076923 0.230769 0.692308 0.461538 0.230769 0.307692 0.230769 0.461538 0.307692 0.384615 0.461538 0.153846 0.230769 0.230769 0.538462 0.076923 0.384615 0.538462 0.230769 0.538462 0.230769 0.384615 0.384615 0.230769 0.461538 0.384615 0.153846 0.538462 0.153846 0.307692 0.076923 0.461538 0.461538 0.384615 0.384615 0.230769</probabilities>
    </cpt>

    <cpt id="ENERGIA">
      <state id="Low"/>
      <state id="Medium"/>
      <state id="High"/>
      <parents>TOPOLOGIA TIPO_DE_ATAQUE</parents>
      <probabilities>0.384615 0.230769 0.384615 0.230769 0.615385 0.153846 0.307692 0.153846 0.538462 0.692308 0.230769 0.076923 0.307692 0.461538 0.230769 0.307692 0.384615 0.307692 0.307692 0.230769 0.461538 0.076923 0.384615 0.538462 0.692308 0.230769 0.076923 0.384615 0.230769 0.384615 0.384615 0.384615 0.230769 0.384615 0.384615 0.230769 0.076923 0.307692 0.615385 0.538462 0.384615 0.076923 0.461538 0.307692 0.230769 0.384615 0.307692 0.307692 0.230769 0.230769 0.538462 0.076923 0.153846 0.769231 0.307692 0.538462 0.153846 0.153846 0.461538 0.384615</probabilities>
    </cpt>
  </nodes>

  <extensions>
    <genie version="1.0" app="GeNIe 5.0.4830.0 ACADEMIC" name="WSN_Attack_Detector">
      <node id="TOPOLOGIA">
        <name>TOPOLOGIA</name>
        <interior color="e5f6f7" />
        <outline color="000080" />
        <font color="000000" name="Arial" size="8" />
        <position>80 120 210 200</position>
        <barchart active="true" width="248" height="72" />
      </node>
      <node id="TIPO_DE_ATAQUE">
        <name>Tipo de Ataque</name>
        <interior color="e5f6f7" />
        <outline color="000080" />
        <font color="000000" name="Arial" size="8" />
        <position>260 120 460 210</position>
        <barchart active="true" width="248" height="72" />
      </node>
      <node id="PDR">
        <name>PDR</name>
        <interior color="e5f6f7" />
        <outline color="000080" />
        <font color="000000" name="Arial" size="8" />
        <position>520 40 700 130</position>
        <barchart active="true" width="248" height="72" />
      </node>
      <node id="DELAY">
        <name>DELAY</name>
        <interior color="e5f6f7" />
        <outline color="000080" />
        <font color="000000" name="Arial" size="8" />
        <position>520 160 700 250</position>
        <barchart active="true" width="248" height="72" />
      </node>
      <node id="THROUGHPUT">
        <name>THROUGHPUT</name>
        <interior color="e5f6f7" />
        <outline color="000080" />
        <font color="000000" name="Arial" size="8" />
        <position>520 280 700 370</position>
        <barchart active="true" width="248" height="72" />
      </node>
      <node id="ENERGIA">
        <name>ENERGIA</name>
        <interior color="e5f6f7" />
        <outline color="000080" />
        <font color="000000" name="Arial" size="8" />
        <position>520 400 700 490</position>
        <barchart active="true" width="248" height="72" />
      </node>
    </genie>
  </extensions>
</smile>
